svm_type c_svc
kernel_type rbf
gamma 0.5
nr_class 2
total_sv 16
rho 0.158392
label 1 2
probA -3.07566
probB 0.160859
nr_sv 8 8
SV
0.9040133688209468 1:0.0034601307 2:0.17117187 3:0.029748453 4:0.057604544 5:-0.01050391 6:0.22505847 7:0.033266038 8:-0.045570407 9:-0.18758617 10:0.025634894 11:0.06397102 12:-0.031623773 13:-0.053719692 14:-0.14301375 15:0.042766247 16:0.01697183 17:-0.12504198 18:-0.031656865 19:0.079814784 20:-0.12734823 21:0.087624483 22:-0.096554644 23:-0.02657046 24:-0.080865018 25:0.15646651 26:-0.0045929793 27:-0.08793506 28:-0.12572099 29:0.067383714 30:-0.0053505576 31:0.062917061 32:-0.011164697 33:-0.14107795 34:-0.0017028736 35:0.045708612 36:0.01776845 37:-0.087730408 38:-0.10613699 39:0.16580868 40:0.0082764179 41:0.074189678 42:-0.12713148 43:0.017533058 44:9.5500152e-05 45:-0.014624557 46:0.066526897 47:0.13837653 48:-0.079044528 49:-0.27295628 50:-0.14602734 51:0.0030858107 52:0.11897088 53:-0.024050361 54:-0.01812949 55:-0.032353111 56:0.045678537 57:0.022162357 58:0.083867446 59:-0.06899558 60:-0.0010765266 61:-0.023088038 62:0.057845667 63:0.14240755 64:-0.14222625 65:0.16926396 66:0.10545413 67:0.0029769151 68:-0.0011138177 69:-0.050615091 70:0.11863483 71:-0.0038698579 72:0.16299507 73:-0.07858099 74:-0.00074149627 75:0.084200002 76:-0.00095264136 77:-0.04321225 78:0.034993447 79:-0.037411436 80:0.1035073 81:-0.12382255 82:-0.032993875 83:0.06648092 84:0.012729313 85:-0.17683394 86:0.079687707 87:0.044645302 88:-0.072364479 89:-0.085998043 90:-0.022268042 91:0.063783556 92:-0.049230687 93:-0.046913594 94:0.044870052 95:-0.073039129 96:-0.066152364 97:0.076800086 98:0.048327819 99:0.016270794 100:0.034394082 101:-0.055152338 102:0.038192242 103:-0.064187966 104:0.048069097 105:0.010067335 106:0.1360461 107:0.068976998 108:0.21114293 109:-0.027061373 110:-0.072660632 111:-0.010592339 112:-0.014016192 113:-0.05214487 114:-0.095219709 115:0.1636408 116:0.010354768 117:-0.13959214 118:0.020336749 119:0.13282254 120:0.084589273 121:0.042117391 122:-0.12009351 123:0.013605621 124:-0.0041104862 125:0.098752268 126:0.12998855 127:0.079434343 128:0.034514517 
0.4203128567150967 1:0.01333734 2:0.10184973 3:0.10001449 4:0.018615222 5:-0.018871162 6:0.18678761 7:0.02745503 8:0.065886296 9:-0.25271687 10:0.12030409 11:0.11100481 12:-0.0091050155 13:-0.042659082 14:-0.16071248 15:0.1081992 16:-0.012228226 17:-0.14174996 18:-0.006179715 19:0.10750791 20:-0.034119457 21:0.028475633 22:-0.066616103 23:-0.023008911 24:0.0083695203 25:0.13445619 26:0.043550935 27:0.024511993 28:-0.040520106 29:0.10942324 30:-0.086208574 31:-0.010732911 32:-0.14423497 33:-0.11602867 34:0.02834898 35:0.0030546542 36:-0.0088033918 37:-0.10275074 38:-0.1271337 39:0.12677556 40:-0.0051114494 41:0.08007466 42:-0.16814457 43:0.037098441 44:0.070250243 45:-0.1011017 46:-0.080329791 47:0.1219553 48:-0.036426727 49:-0.23308982 50:-0.037250213 51:0.052392054 52:0.0485797 53:-0.13243699 54:0.0055311956 55:0.018298909 56:0.031467948 57:-0.057299774 58:0.085120052 59:-0.055935785 60:-0.0025931704 61:-0.054421227 62:-0.02015887 63:0.16304433 64:-0.057146855 65:0.12174371 66:0.14370629 67:-0.039784364 68:-0.1008728 69:-0.076764986 70:0.081134327 71:-0.066027239 72:0.17449336 73:-0.022879817 74:0.080208205 75:0.10235026 76:-0.10216816 77:0.023253629 78:0.086638868 79:0.06641902 80:0.073985033 81:-0.061298553 82:-0.10925876 83:0.11546646 84:0.0072854245 85:-0.094840534 86:0.0046509127 87:0.05592265 88:0.032578018 89:0.068442859 90:0.034042325 91:0.09004394 92:-0.016970756 93:-0.075705476 94:0.075239956 95:-0.081398435 96:-0.098099656 97:0.033434674 98:0.046704557 99:0.0078596873 100:-0.020858429 101:-0.089357115 102:0.056241091 103:-0.024637222 104:-0.040669054 105:0.040803112 106:0.18178041 107:0.099596605 108:0.13211824 109:0.050747175 110:-0.11816757 111:0.021680003 112:0.08514224 113:0.027495358 114:-0.01518041 115:0.15106902 116:-0.058660835 117:0.015355826 118:0.051164642 119:0.089936934 120:0.062789157 121:0.041306127 122:-0.18594758 123:0.013056713 124:-0.021352621 125:0.040945165 126:0.12947313 127:0.14377671 128:0.058643203 
1 1:-0.043683853 2:0.19114552 3:0.045918867 4:-0.041892674 5:-0.06488654 6:0.21399727 7:-0.032339636 8:0.020993585 9:-0.1189253 10:0.043529015 11:0.058121804 12:-0.014886144 13:-0.078567117 14:-0.13743626 15:0.031077834 16:-0.099383831 17:-0.15922682 18:-0.040369827 19:0.092499807 20:-0.10014571 21:-0.038557872 22:-0.049740914 23:-0.027304687 24:-0.024145409 25:0.10612671 26:-0.028088592 27:0.09291064 28:0.03882676 29:0.030201221 30:-0.077213407 31:0.040254477 32:-0.23300333 33:-0.0339109 34:0.0080679925 35:0.030099135 36:-0.0053031133 37:-0.025524432 38:-0.14933461 39:0.10038996 40:0.02555933 41:0.07036715 42:-0.17482795 43:0.071616977 44:0.046843939 45:-0.073472239 46:-0.066174619 47:0.091413178 48:-0.022275053 49:-0.22313315 50:0.024715357 51:-0.018460505 52:0.065648258 53:-0.040574003 54:0.030586133 55:-0.021959782 56:0.062989719 57:-0.073190995 58:0.067665584 59:-0.11686416 60:-0.05496138 61:-0.088256612 62:0.049659003 63:0.18671374 64:-0.11213869 65:0.086083427 66:0.14969364 67:-0.014789691 68:-0.086230397 69:-0.14763346 70:0.090778008 71:-0.033887018 72:0.059889063 73:-0.053531297 74:0.027715437 75:0.15861645 76:-0.0045832726 77:0.0039706766 78:-1.7546401e-05 79:0.052570831 80:0.048298247 81:-0.11696865 82:-0.089056835 83:0.13559826 84:0.086694568 85:-0.10296927 86:0.046590619 87:-0.009816316 88:-0.0041040839 89:0.074922681 90:0.089764036 91:0.049521517 92:-0.12489848 93:0.014822077 94:0.071121119 95:-0.035844453 96:-0.11204303 97:0.0027058378 98:0.048838675 99:-0.015821397 100:-0.0087027177 101:-0.069527313 102:0.053725388 103:-0.065642022 104:-0.046000529 105:0.030902427 106:0.18392743 107:0.082311891 108:0.098822109 109:-0.10290663 110:-0.085507944 111:0.06910453 112:0.0089905784 113:0.073112823 114:0.035404462 115:0.059451252 116:-0.05194689 117:-0.019381627 118:0.1056805 119:0.17586182 120:0.079569206 121:0.087958299 122:-0.22971317 123:-0.010947558 124:-0.069362372 125:0.090083562 126:0.10124572 127:0.12098799 128:0.051965192 
1 1:0.042706955 2:0.10599951 3:0.06361378 4:0.023246864 5:0.0070393137 6:0.16864619 7:0.01712624 8:0.077242583 9:-0.21666348 10:0.10053235 11:0.088946283 12:0.019316329 13:-0.094691671 14:-0.2080304 15:0.039329547 16:-0.020612564 17:-0.062668264 18:0.015721722 19:0.15306959 20:-0.036186241 21:0.048008662 22:-0.064989589 23:0.022191664 24:-0.031381451 25:0.11917835 26:0.036708228 27:0.057394687 28:-0.076114297 29:0.091255687 30:-0.084834136 31:-0.0055454765 32:-0.18463919 33:-0.071011022 34:0.010653833 35:0.056590322 36:-0.054291144 37:-0.050333612 38:-0.069017723 39:0.1593696 40:-0.034366407 41:0.018110616 42:-0.10186109 43:0.0022908859 44:0.040985554 45:-0.098246492 46:-0.047203846 47:0.10690777 48:-0.075314321 49:-0.22206829 50:-0.0067134057 51:0.043122724 52:0.11512924 53:-0.11415882 54:0.014647606 55:-0.0065455921 56:0.0023301649 57:0.029744161 58:0.041511647 59:-0.13671423 60:0.0028017936 61:-0.0035707597 62:-0.059229046 63:0.18945676 64:-0.12735318 65:0.18044959 66:0.020063465 67:-0.057888087 68:-0.061408531 69:-0.074246287 70:0.13569993 71:-0.042833541 72:0.1581955 73:-0.080654345 74:0.059429388 75:0.021799747 76:-0.076743908 77:0.040702872 78:0.13096216 79:0.063011982 80:0.044629481 81:-0.1851425 82:-0.065327063 83:0.11372694 84:0.041858632 85:-0.056210972 86:-0.058361586 87:0.023420099 88:0.059250135 89:0.096055165 90:-0.0087270858 91:0.065328859 92:-0.014241138 93:-0.062112436 94:0.10363964 95:0.020918395 96:-0.13910809 97:0.095769636 98:0.056243945 99:-0.056900036 100:-0.012841374 101:-0.087950006 102:0.05857373 103:-0.090660498 104:-0.020578424 105:0.086239263 106:0.12867419 107:0.16446297 108:0.076400749 109:0.057448391 110:-0.08960361 111:-0.011911588 112:0.044094324 113:0.060272977 114:0.022617493 115:0.19042988 116:-0.053121105 117:-0.0053889588 118:-0.0045697256 119:0.10434642 120:0.074422859 121:-0.00074677134 122:-0.10654915 123:0.018930834 124:-0.026517581 125:0.10415153 126:0.091349453 127:0.18284217 128:0.030588642 
0.2803885271620928 1:-0.020945571 2:0.30352771 3:0.02244827 4:0.0079143913 5:-0.024848061 6:0.18488987 7:0.041214429 8:-0.021239297 9:-0.079232834 10:0.12276643 11:0.096723065 12:-0.081798345 13:-0.025233321 14:-0.12585939 15:0.09285254 16:-0.0018079324 17:-0.078732967 18:-0.0048320685 19:-0.034956943 20:-0.13619547 21:-0.010798935 22:-0.084981449 23:-0.057746567 24:-0.012564629 25:0.17154545 26:-0.11789931 27:-0.0038615935 28:0.04372013 29:0.10960245 30:0.0052821459 31:0.074072041 32:-0.016403764 33:-0.094970517 34:0.047406945 35:-0.008145242 36:-0.028872898 37:-0.023110908 38:-0.10763907 39:0.13111442 40:0.023356231 41:0.074462831 42:-0.19599645 43:0.074350595 44:2.1548185e-05 45:0.0040309872 46:0.0041053025 47:0.061335593 48:0.026166867 49:-0.24758469 50:-0.099908546 51:0.047497254 52:0.1299036 53:-0.074815385 54:-0.070190325 55:-0.090198264 56:0.072533309 57:-0.11910207 58:0.057798736 59:-0.054782946 60:-0.021603504 61:-0.11218483 62:0.00069453643 63:0.09716706 64:-0.14595076 65:0.06376157 66:0.20404883 67:-0.024555631 68:-0.025373157 69:-0.17818631 70:0.065531738 71:-0.027645504 72:0.10268806 73:-0.076748736 74:-0.0026224873 75:0.13483544 76:-0.028252095 77:0.043402866 78:0.019368513 79:-0.017585365 80:0.055776149 81:-0.068452403 82:-0.07589139 83:0.063468605 84:0.023602033 85:-0.11003873 86:0.082593322 87:-0.02465382 88:-0.086614951 89:0.025601815 90:0.083974265 91:0.014938732 92:-0.13793401 93:-0.048318632 94:0.054858681 95:-0.045642141 96:-0.05124557 97:-0.0095514553 98:-0.018815124 99:0.022928769 100:-0.0023173718 101:-0.040462192 102:0.0078511843 103:-0.050782695 104:0.085299507 105:-0.0077537475 106:0.15016897 107:0.025911143 108:0.17110553 109:0.0033283844 110:-0.10894919 111:0.02230512 112:0.060358111 113:-0.02643569 114:0.040169433 115:0.10547344 116:-0.086961262 117:-0.12344775 118:0.12217494 119:0.18063495 120:0.096565232 121:0.080868885 122:-0.1320377 123:-0.023644667 124:0.058961913 125:0.13185115 126:0.063865647 127:0.052101832 128:-0.050403196 
0.3806303233614157 1:-0.0092487894 2:0.24107821 3:-0.017671861 4:-0.018877951 5:0.0015645276 6:0.15632898 7:-0.03097214 8:-0.014874471 9:-0.13937829 10:0.093546078 11:0.12386253 12:-0.049035575 13:-0.027803574 14:-0.16605878 15:-0.012748395 16:0.069127426 17:-0.054729786 18:0.021133926 19:0.04882618 20:-0.043113083 21:0.08429724 22:-0.09057378 23:-0.027142813 24:-0.056085713 25:0.14654702 26:-0.00026643559 27:0.0052107228 28:0.0021490206 29:0.18567912 30:-0.0012750896 31:0.044200327 32:-0.098152652 33:-0.05262712 34:-0.029819578 35:0.025229076 36:-0.051922493 37:-0.04377009 38:-0.063252658 39:0.24377222 40:-0.015868228 41:-0.0078040902 42:-0.11639211 43:0.079108238 44:0.014406956 45:0.015171302 46:-0.08265768 47:0.11249821 48:-0.024024246 49:-0.24203752 50:-0.093488596 51:-0.034331337 52:0.11746036 53:-0.072826311 54:-0.0117552 55:-0.11870691 56:0.025071058 57:-0.018795192 58:0.046083409 59:-0.13954534 60:-0.04820757 61:-0.056010496 62:0.0012084937 63:0.21343257 64:-0.098544084 65:0.059906419 66:0.16017872 67:-0.054026429 68:-0.040219307 69:-0.10638376 70:-0.031210149 71:-0.026409617 72:0.079461381 73:-0.079168014 74:0.00052445766 75:0.11047312 76:-0.063725628 77:0.028966388 78:0.037811004 79:0.013946615 80:0.070137665 81:-0.082511656 82:-0.024189113 83:0.094326422 84:0.073831074 85:-0.079312168 86:0.09431529 87:-0.048666731 88:-0.00021890334 89:0.083638519 90:-0.0098930234 91:0.040700253 92:-0.082746744 93:-0.07944829 94:0.15811259 95:0.027643476 96:-0.12734964 97:-0.013368716 98:0.083910421 99:-0.093317345 100:-0.0073335404 101:-0.061831538 102:-0.02339506 103:-0.083855234 104:0.057364736 105:0.030145889 106:0.21155794 107:0.15426862 108:0.14938584 109:0.069910884 110:-0.1183657 111:-0.0090255337 112:0.010838852 113:0.012226972 114:0.095429957 115:0.12158019 116:-0.051750958 117:-0.14005663 118:0.11816671 119:0.12264661 120:0.042583812 121:-0.01114246 122:-0.13518867 123:-0.0018752243 124:-0.044328902 125:0.048715029 126:0.1100926 127:0.063089542 128:-0.0042418004 
0.3374943155515988 1:-0.055859864 2:0.17601299 3:0.064908065 4:0.064566076 5:-0.034095284 6:0.19821365 7:-0.010729913 8:-0.059064254 9:-0.098532148 10:-0.013003467 11:0.051994953 12:-0.069722943 13:-0.0042978073 14:-0.042635255 15:0.068929382 16:-0.028090233 17:-0.10639878 18:-0.04319071 19:0.015384167 20:-0.065933719 21:0.075764626 22:-0.16640772 23:-0.03119684 24:0.060669005 25:0.16725802 26:-0.065320045 27:-0.14039235 28:-0.065449737 29:0.064009048 30:-0.032707781 31:0.16842155 32:-0.0038478409 33:-0.11692977 34:0.00030937442 35:-0.0025980331 36:0.11236612 37:-0.10985583 38:-0.065730698 39:0.057960987 40:-0.011650011 41:0.097269185 42:-0.1149733 43:0.016688276 44:-0.018838739 45:0.019039139 46:-0.0028424785 47:0.12887378 48:-0.018630279 49:-0.21825168 50:-0.12433812 51:-0.076918922 52:0.051385589 53:0.038551759 54:-0.060665179 55:0.012922866 56:0.093534946 57:-0.08690393 58:0.15265389 59:0.0021452957 60:-0.10076882 61:-0.11136074 62:0.14427461 63:0.11429816 64:-0.1523782 65:0.084279113 66:0.24315573 67:0.048513725 68:-0.037564591 69:-0.13163237 70:0.077978984 71:0.00042370748 72:0.12408558 73:-0.064692006 74:0.021711396 75:0.15880679 76:-0.014319111 77:-0.040616203 78:-0.010349096 79:0.012233535 80:0.099751927 81:-0.11456622 82:-0.030420847 83:0.026353225 84:-0.054801855 85:-0.14216319 86:0.10109316 87:0.014709687 88:-0.060286026 89:-0.055574168 90:0.0033682717 91:0.092166573 92:-0.064634867 93:0.047726817 94:0.0026166663 95:-0.038291018 96:-0.04712202 97:0.0031880261 98:0.066990487 99:0.0082885018 100:0.013894706 101:-0.062100552 102:-0.0020360902 103:-0.04511207 104:0.022833347 105:-0.059541479 106:0.23358932 107:0.015039787 108:0.12620784 109:0.016624199 110:-0.097548664 111:-0.0045404159 112:0.04663356 113:-0.066373013 114:-0.087681778 115:0.12886667 116:0.0097376462 117:-0.12094626 118:0.017089741 119:0.15758695 120:0.1181462 121:0.050976101 122:-0.14185174 123:-0.044929519 124:0.017782805 125:-0.013200123 126:0.16182144 127:0.048767947 128:0.041112494 
0.1094944783486851 1:-0.045608487 2:0.19464298 3:0.044713974 4:-0.0077580181 5:-0.0070826928 6:0.19817649 7:0.021421965 8:0.03788849 9:-0.14105675 10:0.079601496 11:0.054353684 12:-0.0023821048 13:-0.074802488 14:-0.15983239 15:0.011913527 16:0.010132448 17:-0.1209651 18:0.00033775062 19:0.076258838 20:-0.098465405 21:0.056013085 22:-0.10016364 23:-0.058517277 24:-0.039782465 25:0.13821876 26:-0.012421315 27:-0.0030472351 28:-0.0024317144 29:0.10235053 30:-0.036403943 31:0.024844384 32:-0.10630701 33:-0.067259304 34:0.017979706 35:0.0094890278 36:-0.028286228 37:-0.020706156 38:-0.14508215 39:0.17317528 40:-0.011113601 41:0.090932839 42:-0.15450303 43:0.14327121 44:-0.018489966 45:-0.010236171 46:-0.089308314 47:0.13191843 48:-0.077612579 49:-0.24445614 50:-0.06158438 51:-0.015030581 52:0.049086086 53:-0.070201688 54:0.037878741 55:0.00237145 56:0.080295831 57:-0.024592843 58:0.05937583 59:-0.12996273 60:-0.03972432 61:-0.048578009 62:0.030452011 63:0.16490608 64:-0.14549802 65:0.11097061 66:0.18967852 67:-0.061582413 68:-0.082770161 69:-0.12686905 70:0.056582708 71:-0.04443473 72:0.11954751 73:-0.084756725 74:0.04991271 75:0.14056641 76:0.0060744612 77:0.055768471 78:0.061534248 79:0.018221956 80:-0.026495866 81:-0.13116087 82:-0.015212676 83:0.14193432 84:0.099092878 85:-0.11027795 86:0.098907933 87:0.0072758947 88:0.02663015 89:0.073621005 90:0.039316595 91:0.058688104 92:-0.10693102 93:-0.055102125 94:0.085479148 95:0.0045976946 96:-0.064006299 97:0.0051466702 98:0.080955066 99:-0.039269786 100:0.040301856 101:-0.077284575 102:-0.021849759 103:-0.073194571 104:0.033367965 105:0.044710614 106:0.20693102 107:0.088965312 108:0.12234421 109:-0.07076212 110:-0.11606447 111:-0.02411936 112:-0.0090969251 113:0.039015513 114:0.0058043092 115:0.14070238 116:-0.057884369 117:-0.031208184 118:0.084142596 119:0.14630625 120:0.07256794 121:0.068286359 122:-0.15474872 123:0.032758482 124:-0.058722712 125:0.04016028 126:0.13841788 127:0.088115677 128:0.029062098 
-0.0814331151295907 1:-0.11052485 2:0.16881685 3:0.13528761 4:-0.10123297 5:0.026045166 6:0.15244819 7:-0.059977643 8:0.1101884 9:-0.065742157 10:0.14616735 11:0.015273331 12:-0.0028835619 13:-0.076173119 14:-0.10902685 15:0.12099578 16:-0.087096661 17:-0.093214445 18:0.06848295 19:0.051431142 20:-0.072191007 21:-0.038684715 22:0.11041489 23:0.044327877 24:-0.011444096 25:0.0042256066 26:-0.052539244 27:0.10342329 28:0.058531296 29:0.059799466 30:-0.089525439 31:0.0083654178 32:-0.2666049 33:0.039599363 34:0.034471843 35:0.08658544 36:0.042029649 37:0.042725585 38:-0.11659293 39:-0.077531226 40:0.083938971 41:0.0499468 42:-0.046280071 43:0.03270518 44:0.091426454 45:-0.16520515 46:-0.035139475 47:0.094972163 48:0.01410125 49:-0.091791391 50:0.11260781 51:0.097786903 52:0.042994544 53:-0.21352255 54:0.018353771 55:0.033985022 56:0.079106525 57:-0.023779009 58:-0.054064292 59:-0.062258627 60:-0.013929953 61:-0.088375427 62:-0.061035346 63:0.042678308 64:-0.068676382 65:0.16090561 66:-0.12687217 67:-0.019940376 68:-0.065275416 69:-0.067588627 70:0.27995485 71:0.042517208 72:0.11716428 73:0.028487122 74:0.022928098 75:0.035902876 76:-0.007593534 77:-0.06102749 78:0.19166572 79:0.052923094 80:-0.15625542 81:-0.060619108 82:0.040230077 83:0.12058047 84:0.16910361 85:-0.0099431714 86:-0.069507115 87:0.037251648 88:0.10171744 89:0.10970174 90:0.13671015 91:-0.019274991 92:-0.048454635 93:-0.039359726 94:-0.025774326 95:0.027755225 96:-0.11842268 97:-0.012187218 98:0.078756317 99:-0.087137401 100:0.017785193 101:-0.055228952 102:0.098589748 103:-0.016336655 104:-0.139571 105:0.049786169 106:0.049426917 107:0.0051506669 108:-0.093723163 109:0.0050158389 110:0.010089505 111:0.007643092 112:0.019347072 113:0.073449731 114:0.068630286 115:0.032714512 116:-0.08029145 117:0.12633106 118:-0.058535632 119:0.021660356 120:0.062971212 121:0.11588572 122:-0.071274884 123:0.013478518 124:-0.0015586186 125:0.06035322 126:0.021632168 127:0.14773142 128:0.081285261 
-0.08802231780544188 1:-0.09608908 2:0.16474867 3:0.11608742 4:-0.13473286 5:0.058220357 6:0.068761006 7:0.015607821 8:0.071662381 9:-0.057130516 10:0.056366961 11:-0.028367914 12:0.088730447 13:-0.035634257 14:-0.00048715892 15:0.077250324 16:-0.10564995 17:-0.034331933 18:-0.050096456 19:0.024370285 20:-0.049089715 21:-0.045492124 22:0.14170203 23:0.0063994229 24:0.036846474 25:-0.0032936272 26:0.023226652 27:0.089801282 28:0.10995309 29:0.11597912 30:-0.01010682 31:0.009362109 32:-0.17476861 33:0.047478437 34:0.052005727 35:-0.011505331 36:0.00038549496 37:0.032991465 38:0.019755356 39:-0.077492617 40:0.16237254 41:0.087390177 42:0.037156664 43:0.054103963 44:0.087642193 45:-0.15572564 46:0.0085762795 47:0.089179263 48:-0.043043796 49:-0.020077024 50:0.078199811 51:0.076291934 52:0.10578269 53:-0.19700535 54:0.015508394 55:0.10720307 56:0.082153328 57:-0.058830909 58:0.12075309 59:-0.083054744 60:0.014530092 61:-0.13392875 62:-0.092697099 63:0.064254276 64:-0.0496048 65:0.11689023 66:-0.14504333 67:0.0027613703 68:-0.063669354 69:-0.099290282 70:0.23236878 71:0.066329956 72:0.10901862 73:0.01079421 74:0.1207573 75:0.10549676 76:0.050746165 77:-0.048893962 78:0.12717628 79:0.046118375 80:-0.095193587 81:-0.065189354 82:0.05610713 83:0.19915625 84:0.1834121 85:0.012379862 86:-0.18731225 87:0.11306723 88:0.091621645 89:0.071538813 90:0.057846542 91:-0.047976602 92:-0.075655609 93:-0.0015231381 94:-0.031754903 95:0.090376876 96:-0.13654214 97:0.048804253 98:0.058192346 99:-0.035152011 100:-0.0017404084 101:-0.14358927 102:0.13477783 103:0.0015894246 104:0.036754668 105:-0.11996455 106:0.034636937 107:-0.079117179 108:-0.03912155 109:0.053463291 110:-0.086935371 111:0.092391573 112:0.031338144 113:-0.065484092 114:0.13024026 115:0.010908231 116:-0.027094001 117:0.14226013 118:-0.10437194 119:0.023258725 120:0.15304518 121:0.12015274 122:0.010133708 123:-0.052248899 124:-0.021957599 125:-0.03018485 126:0.034540184 127:0.082110271 128:0.072932467 
-1 1:-0.089552484 2:0.2081987 3:0.1530346 4:-0.022675516 5:0.086219244 6:0.069220074 7:-0.030230077 8:-0.019458851 9:-0.07955426 10:0.044411618 11:-0.021638136 12:0.0032251428 13:-0.083867244 14:-0.15625204 15:0.025880199 16:0.041904684 17:-0.095977694 18:-0.0085350499 19:0.023456691 20:-0.040859185 21:0.13302834 22:0.010401413 23:0.027572345 24:-0.1152969 25:0.097336031 26:0.013284007 27:-0.086899586 28:-0.09206441 29:0.12893422 30:0.025242968 31:0.034987267 32:-0.091103189 33:0.014003681 34:-0.007205965 35:0.12468427 36:-0.0087997383 37:0.0081837289 38:0.022828341 39:0.084923416 40:-0.014475401 41:0.018457511 42:-0.031593639 43:0.031437278 44:0.007383347 45:-0.025329597 46:0.19848956 47:0.14855343 48:-0.096401915 49:-0.20190795 50:-0.077592172 51:-0.0019664564 52:0.17802459 53:-0.098575696 54:-0.015912712 55:0.036641497 56:0.0076050889 57:0.086831883 58:-0.069327667 59:-0.14811131 60:0.0031679994 61:0.041829508 62:-0.071029514 63:0.033741578 64:-0.025620326 65:0.21688828 66:-0.15967615 67:-0.06764666 68:0.059421722 69:0.0099715805 70:0.19588003 71:0.081921794 72:0.12156495 73:-0.085473947 74:-0.067262627 75:0.034845237 76:0.079958715 77:-0.10196265 78:0.19585228 79:0.018549385 80:0.010896931 81:-0.150755 82:0.10119778 83:0.085679188 84:0.21518323 85:-0.047794554 86:-0.046816178 87:0.041730151 88:0.095989138 89:-0.025775857 90:0.018819995 91:-0.020467708 92:-0.0080662305 93:-0.063729331 94:0.071982257 95:-0.057908777 96:-0.11833153 97:0.056177072 98:0.087862723 99:-0.039611083 100:-0.012619888 101:-0.028729599 102:0.051334351 103:-0.10405822 104:-0.0026840332 105:0.020797394 106:0.033197947 107:0.064256147 108:0.1220471 109:0.1218945 110:-0.030669723 111:-0.043061726 112:-0.054927424 113:-0.13499507 114:0.016339753 115:0.13692662 116:0.028237136 117:-0.12666745 118:-0.10249776 119:-0.024938567 120:0.11116643 121:0.027406229 122:0.11935928 123:-0.030998994 124:0.01459103 125:0.08998277 126:0.087645918 127:0.15689746 128:0.025197329 
-1 1:-0.1531706 2:0.22484858 3:0.16084199 4:0.00029775957 5:0.049760614 6:0.058466643 7:-0.089895353 8:0.02039074 9:-0.064392887 10:0.10534823 11:-0.082820386 12:-0.0015811406 13:-0.077069037 14:-0.20325243 15:0.061581567 16:-0.015445143 17:-0.032227617 18:-0.020168023 19:0.061863031 20:0.028745672 21:0.023984581 22:-0.06637679 23:0.0618372 24:-0.027443159 25:0.078389354 26:-0.053406302 27:-0.098907158 28:-0.077964216 29:0.089028507 30:-0.049115885 31:0.087157279 32:-0.089019649 33:0.078502513 34:-0.0026900973 35:0.088657975 36:-0.0049846177 37:0.067195244 38:0.0075086099 39:0.034194276 40:-0.036446597 41:0.041933667 42:-0.098159343 43:0.018358279 44:-0.11666478 45:-0.015600955 46:0.17083117 47:0.14390327 48:-0.038857184 49:-0.17854923 50:-0.0061639086 51:-0.016477818 52:0.15504174 53:0.012837177 54:-0.048939034 55:0.015378223 56:0.013860193 57:0.1275412 58:-0.17456433 59:-0.10030215 60:-0.046806317 61:0.0024707462 62:0.035724755 63:-0.075937599 64:-0.087173268 65:0.14926681 66:-0.077593394 67:-0.037070774 68:0.019730993 69:-0.078012474 70:0.085689053 71:0.019220645 72:0.058007147 73:-0.13682929 74:-0.020129478 75:0.11704247 76:0.11603803 77:-0.071307398 78:0.19529557 79:0.11317274 80:0.040287141 81:-0.24049988 82:0.064887211 83:0.073270179 84:0.24012409 85:0.047636017 86:0.0058706137 87:-0.026433207 88:0.12321242 89:0.026381072 90:0.022033934 91:-0.058162488 92:0.044259936 93:0.064573139 94:0.10808333 95:-0.072726674 96:-0.12606706 97:0.055198215 98:0.11111683 99:-0.1036772 100:-0.083864249 101:0.028629852 102:0.0030070739 103:-0.12539881 104:-0.0019838803 105:0.057756435 106:0.057661168 107:0.096558906 108:0.051842969 109:0.09349671 110:0.036309429 111:-0.073195346 112:-0.021345975 113:-0.037543837 114:-0.014504268 115:0.02778527 116:-0.011653393 117:-0.16111819 118:-0.094716653 119:-0.015283138 120:0.13728151 121:0.022362087 122:0.073139206 123:-0.086181395 124:-0.019244481 125:0.040246975 126:0.10354795 127:0.10094962 128:-0.0013662234 
-0.0969355087975779 1:-0.098477617 2:0.16525126 3:0.11051116 4:-0.15468951 5:0.07505931 6:0.083379656 7:-0.051471274 8:0.085875951 9:-0.11903217 10:0.11046068 11:-0.00077699876 12:-0.025828816 13:-0.02824115 14:0.026679704 15:0.16966364 16:-0.014390681 17:-0.0041183005 18:0.072263196 19:0.073470868 20:-0.073957235 21:-0.00029004397 22:0.15141012 23:0.082849406 24:-0.0076603149 25:0.03586467 26:-0.028094791 27:0.13671964 28:0.078112878 29:0.14359494 30:-0.018043203 31:-0.0068208636 32:-0.19637147 33:0.10983495 34:0.037681814 35:0.075803757 36:0.032698836 37:0.077762291 38:-0.04713852 39:-0.051188819 40:0.058989089 41:0.026909668 42:0.0072284318 43:0.13929474 44:0.12418593 45:-0.18672676 46:0.034981869 47:0.14320998 48:-0.013405196 49:-0.11856753 50:0.049712609 51:0.064935766 52:0.0021195826 53:-0.17576112 54:0.019512501 55:0.03961543 56:0.11081571 57:-0.0071993289 58:0.034906093 59:-0.040228978 60:-0.0094931908 61:-0.11892928 62:-0.08186271 63:0.039770361 64:-0.052115135 65:0.16736634 66:-0.061003096 67:-0.087054282 68:-0.061403554 69:-0.078896336 70:0.23648182 71:0.018889572 72:0.07109987 73:-0.013335056 74:-0.033855706 75:0.079123661 76:0.0049069733 77:-0.037675131 78:0.1622753 79:0.030290013 80:-0.2000328 81:-0.010836391 82:0.063931994 83:0.090081751 84:0.14706925 85:-0.0049612029 86:-0.075198986 87:0.0039527863 88:0.070725545 89:0.062890425 90:0.15577236 91:0.018557781 92:-0.05566771 93:-0.1171175 94:-0.048621081 95:0.10470212 96:-0.04865963 97:-0.047793109 98:0.19227715 99:-0.050636582 100:0.0069165006 101:-0.10265633 102:0.077910513 103:0.051814809 104:-0.0594928 105:-0.052707035 106:0.052593902 107:-0.051900841 108:-0.074835971 109:0.082615331 110:-0.10503288 111:0.021931279 112:0.01500594 113:0.016582534 114:0.080310233 115:0.047717929 116:-0.058986492 117:0.14728618 118:-0.10955392 119:0.012661099 120:0.11222854 121:0.14453848 122:-0.058298957 123:-0.0039764224 124:0.0098040588 125:-0.013646949 126:0.011450251 127:0.12654106 128:0.062145151 
-1 1:-0.11770932 2:0.17002936 3:0.1412178 4:-0.11422423 5:-0.012900757 6:0.19387025 7:-0.098559007 8:0.12866272 9:-0.066667438 10:0.050437152 11:-0.041044347 12:-0.0087934732 13:-0.098207347 14:-0.16396709 15:0.077412523 16:-0.088947378 17:-0.11609342 18:0.014503527 19:0.050395716 20:-0.12585397 21:0.0091720046 22:0.073494583 23:0.092048749 24:-0.017722733 25:0.049098264 26:-0.072221264 27:0.11101387 28:-0.0090728113 29:0.034925967 30:-0.12059487 31:0.10830599 32:-0.31078872 33:0.027080886 34:0.021651534 35:0.06848146 36:-0.0076409997 37:-0.020938175 38:-0.084021099 39:-0.037983134 40:0.12456062 41:0.035068333 42:-0.052596126 43:-0.0076944944 44:0.095266148 45:-0.09520565 46:-0.038599588 47:0.083883584 48:-0.051399086 49:-0.14883137 50:0.11018844 51:0.067359045 52:0.060582127 53:-0.10831536 54:-0.010701849 55:-0.057223506 56:0.067976989 57:0.051124457 58:0.0022115845 59:-0.070067197 60:-0.062433302 61:-0.076610126 62:-0.0029745984 63:0.053398166 64:-0.079620399 65:0.15688217 66:-0.15951338 67:-0.015829407 68:-0.039651927 69:-0.10301845 70:0.27334067 71:0.041351911 72:0.097961582 73:-0.045867447 74:-0.0069113765 75:0.044476133 76:0.012794199 77:-0.094593517 78:0.11551091 79:0.037403796 80:-0.014455996 81:-0.16611831 82:-0.011176758 83:0.15706196 84:0.19000205 85:-0.056945793 86:-0.06861046 87:0.050195921 88:0.059510481 89:0.044504352 90:0.043192539 91:-0.054570243 92:-0.065318838 93:-0.01582427 94:0.018150369 95:0.054022353 96:-0.081252582 97:0.016643414 98:0.11456667 99:-0.15193157 100:0.037421294 101:-0.076187149 102:0.080309972 103:-0.09595897 104:-0.038748648 105:0.061852995 106:0.0248193 107:0.0098263556 108:-0.048130691 109:-0.017785436 110:-0.061364226 111:0.01301062 112:0.01379751 113:0.038967837 114:0.071306124 115:0.045522321 116:-0.010871265 117:0.033380251 118:-0.027991438 119:0.084562644 120:0.13199382 121:0.08956258 122:-0.069674402 123:-0.050029755 124:-0.062542014 125:0.083444998 126:0.013216671 127:0.1261252 128:0.089075878 
-1 1:-0.10933462 2:0.13845159 3:0.14967933 4:-0.13692735 5:0.065433413 6:0.14032684 7:-0.022675429 8:0.1049505 9:-0.11944271 10:0.10236695 11:-0.020030858 12:-0.0091262655 13:-0.051715415 14:-0.050334163 15:0.14873607 16:-0.071502186 17:-0.049058184 18:0.095357783 19:0.042966869 20:-0.11569161 21:-0.0058374777 22:0.1055494 23:0.10000927 24:-0.010660458 25:0.05133675 26:-0.063355021 27:0.090505034 28:0.050494641 29:0.11284094 30:-0.093437068 31:0.07142698 32:-0.25283679 33:0.034013793 34:0.011399339 35:0.088644221 36:-0.0096052 37:-0.02873629 38:-0.062098693 39:-0.052790906 40:0.085686922 41:0.06347765 42:0.011531017 43:0.047917429 44:0.14743264 45:-0.20148996 46:-0.045080081 47:0.068273164 48:-0.016648725 49:-0.10853408 50:0.049679752 51:0.068369828 52:0.0032313634 53:-0.16861904 54:-0.029825395 55:-0.04766959 56:0.088402666 57:0.00075732247 58:0.088688157 59:-0.048655 60:-0.0044515762 61:-0.11963451 62:-0.033592746 63:0.059922684 64:-0.051546719 65:0.19164111 66:-0.090051524 67:-0.068557814 68:-0.06955339 69:-0.13212797 70:0.26196814 71:0.054530904 72:0.12316955 73:0.014966532 74:-0.00067449297 75:0.020397779 76:-0.011315927 77:-0.075907387 78:0.10113067 79:0.047143016 80:-0.13167946 81:-0.092788726 82:-0.0010079639 83:0.1379436 84:0.15715471 85:-0.043439683 86:-0.1303397 87:0.057074849 88:0.070167974 89:0.042895447 90:0.073258728 91:-0.010699637 92:-0.041925389 93:-0.054339912 94:-0.054844461 95:0.10177884 96:-0.086449817 97:-0.023795044 98:0.15271652 99:-0.12790416 100:0.046805009 101:-0.10155509 102:0.093108431 103:4.0822462e-05 104:-0.051868796 105:0.013875024 106:0.036675356 107:-0.0022269222 108:-0.064867422 109:0.098879226 110:-0.092909306 111:0.033145674 112:0.029049018 113:0.037146814 114:0.1086757 115:0.052874353 116:-0.041026115 117:0.10567069 118:-0.027485881 119:0.055370416 120:0.13094626 121:0.10312894 122:-0.10172828 123:-0.080625802 124:-0.03547129 125:0.019825118 126:0.013537752 127:0.080581926 128:0.074377768 
-0.1659429282272253 1:-0.11290442 2:0.21133962 3:0.14606567 4:-0.097184405 5:0.0028510131 6:0.12279887 7:-0.044553503 8:0.14722808 9:-0.04130682 10:0.059901919 11:-0.017241046 12:-0.00077115116 13:-0.10401908 14:-0.13575467 15:0.11036659 16:-0.08453121 17:-0.052375861 18:-0.026003005 19:0.073840328 20:-0.12327912 21:0.0096067991 22:0.11905201 23:-0.018047668 24:0.025366291 25:0.071844071 26:-0.040568769 27:0.12708832 28:0.024126202 29:0.10422336 30:-0.045758106 31:0.058886696 32:-0.25064322 33:0.064590968 34:0.056155793 35:0.035854992 36:-0.0066159968 37:0.083362155 38:-0.098000914 39:-0.051992226 40:0.11255171 41:0.098867536 42:-0.053316887 43:0.079243049 44:0.10451034 45:-0.079502858 46:0.021578116 47:0.13974592 48:-0.095908716 49:-0.12342675 50:0.032076824 51:0.074975938 52:0.079043716 53:-0.13959672 54:0.004889945 55:0.044799335 56:0.11772337 57:-0.024475548 58:-0.015405178 59:-0.069417559 60:-0.048340239 61:-0.080954753 62:-0.11164364 63:0.0097459974 64:-0.079919949 65:0.13852483 66:-0.14070585 67:0.014661983 68:-0.10558621 69:-0.048653889 70:0.2311123 71:0.0083591007 72:0.074606434 73:-0.055551279 74:-0.010265848 75:0.10791747 76:0.031329073 77:-0.061605513 78:0.23282149 79:0.012035968 80:-0.080840662 81:-0.13824706 82:0.082594134 83:0.16276048 84:0.19327991 85:0.032600489 86:-0.059294727 87:0.067923807 88:0.061154991 89:0.039083317 90:0.080157235 91:-0.042260922 92:-0.077258177 93:-0.079708725 94:-0.021529112 95:0.054478079 96:-0.075006329 97:0.040691756 98:0.064977422 99:-0.064863957 100:0.014405802 101:-0.13732651 102:0.077617452 103:-0.021940444 104:-0.010316361 105:-0.051855832 106:0.022378372 107:-0.020104725 108:-0.029028753 109:-0.044758376 110:-0.080941148 111:0.024670696 112:-0.014565711 113:-0.048464321 114:0.031556655 115:0.060388301 116:-0.058573268 117:0.065101966 118:-0.15034793 119:0.049591802 120:0.10101417 121:0.13266505 122:0.018480353 123:-0.023231108 124:0.0072448743 125:0.069791183 126:0.010688973 127:0.14402781 128:0.063403077 
